window.skRFModels = {
    joinModelStr: '{"modelMeta": {"inputMeta": {"orderMap": {"avgDiff": 0, "sig2Diff": 1, "titleDist": 2, "match": 6, "maxDiff": 4, "type": 5, "minDiff": 3}, "typeMap": {"avgDiff": "continuous", "sig2Diff": "continuous", "titleDist": "continuous", "match": "continuous", "maxDiff": "continuous", "type": "continuous", "minDiff": "continuous"}, "categoricalMapMeta": null}, "timeOnCreate": "2017-01-24 03:18:48.622985", "modelType": "RandomForest"}, "model": {"estimators_": [{"children_right": [20, 19, 18, 17, 8, 7, -1, -1, 14, 13, 12, -1, -1, -1, 16, -1, -1, -1, -1, -1, 22, -1, -1], "feature": [3, 4, 6, 6, 5, 0, -2, -2, 6, 2, 2, -2, -2, -2, 2, -2, -2, -2, -2, -2, 2, -2, -2], "value": [[[238.0, 16.0]], [[58.0, 14.0]], [[58.0, 11.0]], [[58.0, 4.0]], [[41.0, 4.0]], [[5.0, 2.0]], [[0.0, 2.0]], [[5.0, 0.0]], [[36.0, 2.0]], [[35.0, 1.0]], [[3.0, 1.0]], [[2.0, 0.0]], [[1.0, 1.0]], [[32.0, 0.0]], [[1.0, 1.0]], [[0.0, 1.0]], [[1.0, 0.0]], [[17.0, 0.0]], [[0.0, 7.0]], [[0.0, 3.0]], [[180.0, 2.0]], [[0.0, 2.0]], [[180.0, 0.0]]], "children_left": [1, 2, 3, 4, 5, 6, -1, -1, 9, 10, 11, -1, -1, -1, 15, -1, -1, -1, -1, -1, 21, -1, -1], "threshold": [0.5, 3.5, 27.0, 4.0, 0.5, 0.0833333358168602, -2.0, -2.0, 2.0, 4.5, 2.0, -2.0, -2.0, -2.0, 21.5, -2.0, -2.0, -2.0, -2.0, -2.0, 3.0, -2.0, -2.0], "node_count": 23}, {"children_right": [10, 7, 6, 5, -1, -1, -1, 9, -1, -1, 24, 23, 22, 21, 20, 19, 18, -1, -1, -1, -1, -1, -1, -1, 26, -1, 36, 33, 32, 31, -1, -1, -1, 35, -1, -1, -1], "feature": [2, 3, 6, 5, -2, -2, -2, 3, -2, -2, 2, 4, 0, 4, 6, 4, 2, -2, -2, -2, -2, -2, -2, -2, 2, -2, 3, 1, 2, 0, -2, -2, -2, 6, -2, -2, -2], "value": [[[237.0, 17.0]], [[3.0, 12.0]], [[1.0, 9.0]], [[1.0, 2.0]], [[0.0, 2.0]], [[1.0, 0.0]], [[0.0, 7.0]], [[2.0, 3.0]], [[2.0, 0.0]], [[0.0, 3.0]], [[234.0, 5.0]], [[196.0, 2.0]], [[154.0, 2.0]], [[85.0, 2.0]], [[85.0, 1.0]], [[49.0, 1.0]], [[46.0, 1.0]], [[3.0, 1.0]], [[43.0, 0.0]], [[3.0, 0.0]], [[36.0, 0.0]], [[0.0, 1.0]], [[69.0, 0.0]], [[42.0, 0.0]], [[38.0, 3.0]], [[0.0, 1.0]], [[38.0, 2.0]], [[8.0, 2.0]], [[5.0, 1.0]], [[3.0, 1.0]], [[3.0, 0.0]], [[0.0, 1.0]], [[2.0, 0.0]], [[3.0, 1.0]], [[3.0, 0.0]], [[0.0, 1.0]], [[30.0, 0.0]]], "children_left": [1, 2, 3, 4, -1, -1, -1, 8, -1, -1, 11, 12, 13, 14, 15, 16, 17, -1, -1, -1, -1, -1, -1, -1, 25, -1, 27, 28, 29, 30, -1, -1, -1, 34, -1, -1, -1], "threshold": [3.0, 1.5, 36.5, 0.5, -2.0, -2.0, -2.0, 4.5, -2.0, -2.0, 27.5, 4.5, 0.8833333253860474, 3.5, 1.5, 0.10000000149011612, 4.5, -2.0, -2.0, -2.0, -2.0, -2.0, -2.0, -2.0, 37.5, -2.0, 3.5, 15.466666221618652, 41.5, 2.5, -2.0, -2.0, -2.0, 27.5, -2.0, -2.0, -2.0], "node_count": 37}, {"children_right": [24, 15, 14, 13, 6, -1, 12, 9, -1, 11, -1, -1, -1, -1, -1, 17, -1, 23, 22, 21, -1, -1, -1, -1, 26, -1, -1], "feature": [6, 3, 1, 0, 5, -2, 2, 2, -2, 6, -2, -2, -2, -2, -2, 0, -2, 3, 4, 2, -2, -2, -2, -2, 0, -2, -2], "value": [[[230.0, 24.0]], [[225.0, 6.0]], [[46.0, 5.0]], [[35.0, 5.0]], [[35.0, 3.0]], [[0.0, 1.0]], [[35.0, 2.0]], [[5.0, 2.0]], [[2.0, 0.0]], [[3.0, 2.0]], [[3.0, 0.0]], [[0.0, 2.0]], [[30.0, 0.0]], [[0.0, 2.0]], [[11.0, 0.0]], [[179.0, 1.0]], [[118.0, 0.0]], [[61.0, 1.0]], [[29.0, 1.0]], [[25.0, 1.0]], [[0.0, 1.0]], [[25.0, 0.0]], [[4.0, 0.0]], [[32.0, 0.0]], [[5.0, 18.0]], [[0.0, 18.0]], [[5.0, 0.0]]], "children_left": [1, 2, 3, 4, 5, -1, 7, 8, -1, 10, -1, -1, -1, -1, -1, 16, -1, 18, 19, 20, -1, -1, -1, -1, 25, -1, -1], "threshold": [27.5, 0.5, 0.29664286971092224, 0.0357142873108387, 0.5, -2.0, 5.5, 4.5, -2.0, 1.5, -2.0, -2.0, -2.0, -2.0, -2.0, 5.5, -2.0, 6.5, 7.0, 23.0, -2.0, -2.0, -2.0, -2.0, 1.7999999523162842, -2.0, -2.0], "node_count": 27}, {"children_right": [18, 9, 4, -1, 8, 7, -1, -1, -1, 17, 16, 15, 14, -1, -1, -1, -1, -1, 26, 21, -1, 25, 24, -1, -1, -1, -1], "feature": [4, 2, 5, -2, 2, 6, -2, -2, -2, 3, 2, 2, 6, -2, -2, -2, -2, -2, 6, 0, -2, 1, 2, -2, -2, -2, -2], "value": [[[232.0, 22.0]], [[58.0, 20.0]], [[6.0, 16.0]], [[0.0, 4.0]], [[6.0, 12.0]], [[4.0, 9.0]], [[4.0, 0.0]], [[0.0, 9.0]], [[2.0, 3.0]], [[52.0, 4.0]], [[37.0, 4.0]], [[37.0, 2.0]], [[6.0, 2.0]], [[6.0, 0.0]], [[0.0, 2.0]], [[31.0, 0.0]], [[0.0, 2.0]], [[15.0, 0.0]], [[174.0, 2.0]], [[39.0, 2.0]], [[9.0, 0.0]], [[30.0, 2.0]], [[28.0, 2.0]], [[0.0, 2.0]], [[28.0, 0.0]], [[2.0, 0.0]], [[135.0, 0.0]]], "children_left": [1, 2, 3, -1, 5, 6, -1, -1, -1, 10, 11, 12, 13, -1, -1, -1, -1, -1, 19, 20, -1, 22, 23, -1, -1, -1, -1], "threshold": [0.10000000149011612, 4.5, 0.5, -2.0, 3.0, 36.5, -2.0, -2.0, -2.0, 0.5, 26.0, 5.5, 1.5, -2.0, -2.0, -2.0, -2.0, -2.0, 0.5, 5.5, -2.0, 1103.2916259765625, 23.0, -2.0, -2.0, -2.0, -2.0], "node_count": 27}, {"children_right": [22, 7, 4, -1, 6, -1, -1, 11, 10, -1, -1, 17, 16, 15, -1, -1, -1, 21, 20, -1, -1, -1, -1], "feature": [6, 2, 5, -2, 3, -2, -2, 2, 0, -2, -2, 1, 0, 6, -2, -2, -2, 4, 6, -2, -2, -2, -2], "value": [[[238.0, 16.0]], [[238.0, 9.0]], [[3.0, 4.0]], [[0.0, 3.0]], [[3.0, 1.0]], [[3.0, 0.0]], [[0.0, 1.0]], [[235.0, 5.0]], [[11.0, 3.0]], [[3.0, 3.0]], [[8.0, 0.0]], [[224.0, 2.0]], [[192.0, 1.0]], [[43.0, 1.0]], [[43.0, 0.0]], [[0.0, 1.0]], [[149.0, 0.0]], [[32.0, 1.0]], [[7.0, 1.0]], [[7.0, 0.0]], [[0.0, 1.0]], [[25.0, 0.0]], [[0.0, 7.0]]], "children_left": [1, 2, 3, -1, 5, -1, -1, 8, 9, -1, -1, 12, 13, 14, -1, -1, -1, 18, 19, -1, -1, -1, -1], "threshold": [68.0, 3.0, 0.5, -2.0, 4.5, -2.0, -2.0, 4.5, 0.5666666626930237, -2.0, -2.0, 30.441665649414062, 0.0833333358168602, 27.0, -2.0, -2.0, -2.0, 4.5, 28.5, -2.0, -2.0, -2.0, -2.0], "node_count": 23}, {"children_right": [12, 11, 10, 9, 8, 7, -1, -1, -1, -1, -1, -1, 16, 15, -1, -1, 18, -1, 20, -1, 24, 23, -1, -1, -1], "feature": [4, 6, 2, 0, 2, 5, -2, -2, -2, -2, -2, -2, 0, 0, -2, -2, 2, -2, 2, -2, 0, 6, -2, -2, -2], "value": [[[239.0, 15.0]], [[55.0, 10.0]], [[55.0, 4.0]], [[4.0, 4.0]], [[4.0, 3.0]], [[3.0, 1.0]], [[0.0, 1.0]], [[3.0, 0.0]], [[1.0, 2.0]], [[0.0, 1.0]], [[51.0, 0.0]], [[0.0, 6.0]], [[184.0, 5.0]], [[22.0, 3.0]], [[22.0, 0.0]], [[0.0, 3.0]], [[162.0, 2.0]], [[0.0, 1.0]], [[162.0, 1.0]], [[135.0, 0.0]], [[27.0, 1.0]], [[2.0, 1.0]], [[1.0, 1.0]], [[1.0, 0.0]], [[25.0, 0.0]]], "children_left": [1, 2, 3, 4, 5, 6, -1, -1, -1, -1, -1, -1, 13, 14, -1, -1, 17, -1, 19, -1, 21, 22, -1, -1, -1], "threshold": [0.10000000149011612, 33.5, 4.5, 0.0357142873108387, 2.0, 0.5, -2.0, -2.0, -2.0, -2.0, -2.0, -2.0, 0.8833333253860474, 0.8500000238418579, -2.0, -2.0, 3.0, -2.0, 28.0, -2.0, 3.5, 5.5, -2.0, -2.0, -2.0], "node_count": 25}, {"children_right": [10, 7, 4, -1, 6, -1, -1, 9, -1, -1, -1], "feature": [6, 6, 3, -2, 2, -2, -2, 1, -2, -2, -2], "value": [[[241.0, 13.0]], [[241.0, 3.0]], [[232.0, 1.0]], [[177.0, 0.0]], [[55.0, 1.0]], [[0.0, 1.0]], [[55.0, 0.0]], [[9.0, 2.0]], [[0.0, 2.0]], [[9.0, 0.0]], [[0.0, 10.0]]], "children_left": [1, 2, 3, -1, 5, -1, -1, 8, -1, -1, -1], "threshold": [68.0, 40.0, 5.5, -2.0, 3.0, -2.0, -2.0, 111.49166870117188, -2.0, -2.0, -2.0], "node_count": 11}, {"children_right": [6, 3, -1, 5, -1, -1, 8, -1, 12, 11, -1, -1, 20, 15, -1, 19, 18, -1, -1, -1, 22, -1, -1], "feature": [0, 5, -2, 2, -2, -2, 4, -2, 2, 4, -2, -2, 6, 2, -2, 0, 3, -2, -2, -2, 6, -2, -2], "value": [[[240.0, 14.0]], [[33.0, 11.0]], [[0.0, 2.0]], [[33.0, 9.0]], [[0.0, 9.0]], [[33.0, 0.0]], [[207.0, 3.0]], [[61.0, 0.0]], [[146.0, 3.0]], [[1.0, 1.0]], [[1.0, 0.0]], [[0.0, 1.0]], [[145.0, 2.0]], [[140.0, 1.0]], [[102.0, 0.0]], [[38.0, 1.0]], [[4.0, 1.0]], [[2.0, 0.0]], [[2.0, 1.0]], [[34.0, 0.0]], [[5.0, 1.0]], [[0.0, 1.0]], [[5.0, 0.0]]], "children_left": [1, 2, -1, 4, -1, -1, 7, -1, 9, 10, -1, -1, 13, 14, -1, 16, 17, -1, -1, -1, 21, -1, -1], "threshold": [0.0416666679084301, 0.5, -2.0, 2.0, -2.0, -2.0, 2.5, -2.0, 3.0, 4.5, -2.0, -2.0, 29.0, 28.0, -2.0, 3.5, 2.0, -2.0, -2.0, -2.0, 46.0, -2.0, -2.0], "node_count": 23}, {"children_right": [20, 19, 16, 11, 10, 9, 8, -1, -1, -1, -1, 13, -1, 15, -1, -1, 18, -1, -1, -1, 22, -1, -1], "feature": [6, 6, 1, 2, 4, 3, 5, -2, -2, -2, -2, 0, -2, 3, -2, -2, 2, -2, -2, -2, 3, -2, -2], "value": [[[241.0, 13.0]], [[236.0, 7.0]], [[85.0, 7.0]], [[78.0, 5.0]], [[2.0, 3.0]], [[2.0, 1.0]], [[1.0, 1.0]], [[0.0, 1.0]], [[1.0, 0.0]], [[1.0, 0.0]], [[0.0, 2.0]], [[76.0, 2.0]], [[40.0, 0.0]], [[36.0, 2.0]], [[1.0, 2.0]], [[35.0, 0.0]], [[7.0, 2.0]], [[0.0, 2.0]], [[7.0, 0.0]], [[151.0, 0.0]], [[5.0, 6.0]], [[0.0, 6.0]], [[5.0, 0.0]]], "children_left": [1, 2, 3, 4, 5, 6, 7, -1, -1, -1, -1, 12, -1, 14, -1, -1, 17, -1, -1, -1, 21, -1, -1], "threshold": [29.0, 0.5, 0.07746478915214539, 3.0, 4.5, 1.5, 0.5, -2.0, -2.0, -2.0, -2.0, 2.5, -2.0, 4.0, -2.0, -2.0, 3.0, -2.0, -2.0, -2.0, 2.5, -2.0, -2.0], "node_count": 23}, {"children_right": [8, 7, 4, -1, 6, -1, -1, -1, 20, 19, 18, 13, -1, 17, 16, -1, -1, -1, -1, -1, 22, -1, -1], "feature": [2, 2, 5, -2, 6, -2, -2, -2, 6, 3, 0, 6, -2, 6, 2, -2, -2, -2, -2, -2, 1, -2, -2], "value": [[[238.0, 16.0]], [[1.0, 11.0]], [[1.0, 10.0]], [[0.0, 2.0]], [[1.0, 8.0]], [[1.0, 0.0]], [[0.0, 8.0]], [[0.0, 1.0]], [[237.0, 5.0]], [[232.0, 1.0]], [[56.0, 1.0]], [[40.0, 1.0]], [[33.0, 0.0]], [[7.0, 1.0]], [[3.0, 1.0]], [[0.0, 1.0]], [[3.0, 0.0]], [[4.0, 0.0]], [[16.0, 0.0]], [[176.0, 0.0]], [[5.0, 4.0]], [[0.0, 4.0]], [[5.0, 0.0]]], "children_left": [1, 2, 3, -1, 5, -1, -1, -1, 9, 10, 11, 12, -1, 14, 15, -1, -1, -1, -1, -1, 21, -1, -1], "threshold": [3.0, 1.0, 0.5, -2.0, 36.5, -2.0, -2.0, -2.0, 29.0, 0.5, 0.0833333358168602, 1.5, -2.0, 4.0, 21.5, -2.0, -2.0, -2.0, -2.0, -2.0, 126.95833587646484, -2.0, -2.0], "node_count": 23}]}}',
};
